1 1 2 100 1
0 2 2 100 0.0437561
2 2 2 100 0.956244
1 1 3 100 1
3 2 3 100 1
0 3 3 100 0.990296
2 3 3 100 0.00970443
1 1 4 100 0.522802
2 1 4 100 0.477198
0 2 4 100 0.00375451
3 2 4 100 0.960071
4 2 4 100 0.0361743
0 3 4 100 0.166049
2 3 4 100 0.000227267
4 3 4 100 0.833724
0 4 4 100 0.00224491
3 4 4 100 0.497754
4 4 4 100 0.500001
0 5 4 100 0.500044
3 5 4 100 0.499956
1 1 5 100 0.815578
2 1 5 100 0.184083
4 1 5 100 0.000338561
0 2 5 100 0.203605
2 2 5 100 0.20001
3 2 5 100 0.430876
4 2 5 100 0.165509
0 3 5 100 0.220069
2 3 5 100 0.299999
3 3 5 100 0.0511253
4 3 5 100 0.128807
5 3 5 100 0.3
0 4 5 100 0.0696635
3 4 5 100 0.216293
4 4 5 100 0.436661
5 4 5 100 0.277382
0 5 5 100 0.000498689
4 5 5 100 0.285216
5 5 5 100 0.714285
5 6 5 100 1
1 1 6 100 0.726528
2 1 6 100 0.273472
0 2 6 100 0.0568418
2 2 6 100 0.0152541
3 2 6 100 0.790931
4 2 6 100 0.136973
0 3 6 100 0.101037
2 3 6 100 0.0625
4 3 6 100 0.491661
5 3 6 100 0.342026
6 3 6 100 0.00277632
0 4 6 100 0.0624412
4 4 6 100 0.048539
5 4 6 100 0.57652
6 4 6 100 0.3125
0 5 6 100 0.237286
4 5 6 100 4.2554e-05
5 5 6 100 0.000239532
6 5 6 100 0.762432
0 6 6 100 1.28431e-05
6 6 6 100 0.999987
0 7 6 100 0.957432
4 7 6 100 0.000321428
5 7 6 100 0.000968578
6 7 6 100 0.0412781
1 1 7 100 0.579389
2 1 7 100 0.198205
3 1 7 100 0.042367
4 1 7 100 0.179855
5 1 7 100 3.51592e-05
6 1 7 100 0.000149256
0 2 7 100 0.00125948
2 2 7 100 0.111111
3 2 7 100 0.133703
4 2 7 100 0.531209
5 2 7 100 0.222717
0 3 7 100 0.18438
1 3 7 100 6.19566e-06
3 3 7 100 0.111105
4 3 7 100 0.111111
5 3 7 100 0.2709
6 3 7 100 0.317128
7 3 7 100 0.00536922
0 4 7 100 0.501738
5 4 7 100 0.219496
6 4 7 100 0.233489
7 4 7 100 0.0452767
0 5 7 100 0.053172
4 5 7 100 0.125
6 5 7 100 0.249291
7 5 7 100 0.572536
1 6 7 100 0.4
6 6 7 100 0.00027216
7 6 7 100 0.599728
2 7 7 100 0.666667
7 7 7 100 0.333333
1 1 8 100 0.407346
2 1 8 100 0.353943
3 1 8 100 0.238675
6 1 8 100 3.62378e-05
0 2 8 100 0.0915817
3 2 8 100 0.360591
4 2 8 100 0.437946
5 2 8 100 0.0446136
6 2 8 100 0.0652679
0 3 8 100 0.00743661
1 3 8 100 2.21095e-05
4 3 8 100 0.425336
5 3 8 100 0.424257
6 3 8 100 9.13178e-05
7 3 8 100 0.142857
0 4 8 100 0.142857
5 4 8 100 0.285714
6 4 8 100 0.142857
7 4 8 100 0.142857
8 4 8 100 0.285714
0 5 8 100 0.357293
3 5 8 100 8.09767e-06
5 5 8 100 0.0005
6 5 8 100 0.16694
7 5 8 100 0.228486
8 5 8 100 0.246773
0 6 8 100 1.50286e-05
8 6 8 100 0.999985
8 7 8 100 1
1 1 9 100 0.207244
2 1 9 100 0.792756
3 2 9 100 1
4 3 9 100 1
6 4 9 100 1
5 5 9 100 0.00203423
8 5 9 100 0.997966
9 6 9 100 1
1 1 10 100 0.5
3 1 10 100 0.0938784
4 1 10 100 0.406121
2 2 10 100 0.00173576
5 2 10 100 0.5
8 2 10 100 0.498264
0 3 10 100 0.286072
2 3 10 100 0.000710203
3 3 10 100 9.43234e-05
6 3 10 100 0.213123
9 3 10 100 0.500001
0 4 10 100 0.291187
2 4 10 100 0.000210873
3 4 10 100 2.80064e-05
5 4 10 100 0.000386227
6 4 10 100 0.208574
10 4 10 100 0.499614
0 5 10 100 0.00201673
7 5 10 100 0.497972
9 5 10 100 1.16915e-05
10 5 10 100 0.5
0 6 10 100 0.00546936
1 6 10 100 0.494531
8 6 10 100 0.5
0 7 10 100 0.00223081
7 7 10 100 5.22602e-05
9 7 10 100 0.497717
10 7 10 100 0.499999
10 8 10 100 1
1 1 11 100 0.477495
3 1 11 100 0.333333
6 1 11 100 0.189172
0 2 11 100 0.00253488
2 2 11 100 0.10082
3 2 11 100 0.103759
5 2 11 100 0.204089
6 2 11 100 0.0255638
7 2 11 100 0.229888
8 2 11 100 0.333333
10 2 11 100 1.13016e-05
8 3 11 100 0.666667
9 3 11 100 0.333333
0 4 11 100 0.333333
2 4 11 100 0.333334
4 4 11 100 4.33573e-05
5 4 11 100 0.000110628
9 4 11 100 0.33318
4 5 11 100 0.333333
9 5 11 100 0.333333
11 5 11 100 0.333333
0 6 11 100 0.00480169
1 6 11 100 8.00863e-06
5 6 11 100 0.49359
6 6 11 100 0.000241301
10 6 11 100 0.501359
0 7 11 100 0.492927
10 7 11 100 0.00707316
11 7 11 100 0.5
0 8 11 100 0.0636388
1 8 11 100 9.98584e-05
5 8 11 100 0.00250214
10 8 11 100 0.933759
11 9 11 100 1
1 1 13 100 0.681121
2 1 13 100 0.177906
7 1 13 100 0.140973
0 2 13 100 0.162544
1 2 13 100 2.94783e-06
2 2 13 100 0.0467395
3 2 13 100 0.313506
7 2 13 100 0.0771434
8 2 13 100 0.199997
9 2 13 100 0.2
12 2 13 100 6.75102e-05
0 3 13 100 0.014931
2 3 13 100 0.000263191
3 3 13 100 0.219213
5 3 13 100 0.000316433
8 3 13 100 0.40021
9 3 13 100 0.198788
10 3 13 100 0.166249
12 3 13 100 3.05161e-05
0 4 13 100 0.33607
4 4 13 100 0.156755
5 4 13 100 0.00434724
6 4 13 100 0.00244521
7 4 13 100 0.0553194
9 4 13 100 0.0173923
10 4 13 100 0.42767
0 5 13 100 0.0122492
2 5 13 100 5.93451e-06
3 5 13 100 0.0110521
4 5 13 100 0.000102866
6 5 13 100 0.0219432
9 5 13 100 0.199465
10 5 13 100 0.177464
11 5 13 100 0.577718
0 6 13 100 0.2
11 6 13 100 0.2
13 6 13 100 0.6
11 7 13 100 0.5
13 7 13 100 0.5
0 8 13 100 0.500049
4 8 13 100 8.65709e-06
7 8 13 100 7.84814e-05
8 8 13 100 0.000106806
12 8 13 100 0.499757
13 9 13 100 1
1 1 14 100 0.527543
2 1 14 100 0.000853552
10 1 14 100 0.471603
12 2 14 100 1
1 3 14 100 0.00106666
8 3 14 100 0.00043926
13 3 14 100 0.998494
7 4 14 100 1
4 5 14 100 0.0020817
8 5 14 100 0.00289782
9 5 14 100 0.995021
0 6 14 100 0.999984
2 6 14 100 1.6378e-05
1 1 16 100 0.614905
5 1 16 100 0.385095
1 2 16 100 0.000337991
6 2 16 100 0.999662
7 3 16 100 0.0420684
9 3 16 100 0.957932
2 4 16 100 1
3 5 16 100 0.00314479
4 5 16 100 0.996836
7 5 16 100 1.8878e-05
11 6 16 100 1
12 7 16 100 1
13 8 16 100 1
10 9 16 100 0.00197096
15 9 16 100 0.998029
0 10 16 100 0.998095
8 10 16 100 0.00190493
16 11 16 100 1
1 1 17 100 0.000486093
5 1 17 100 0.562543
7 1 17 100 0.103633
8 1 17 100 3.39641e-06
15 1 17 100 0.333334
1 2 17 100 0.338388
3 2 17 100 0.326074
6 2 17 100 0.335538
1 3 17 100 0.332666
3 3 17 100 0.000666836
4 3 17 100 0.152389
6 3 17 100 0.182371
9 3 17 100 0.011232
10 3 17 100 0.320627
12 3 17 100 4.75909e-05
0 4 17 100 0.0215775
2 4 17 100 0.333341
3 4 17 100 0.311748
7 4 17 100 0.333082
17 4 17 100 0.000251552
3 5 17 100 0.000567817
4 5 17 100 0.102255
7 5 17 100 0.00658023
8 5 17 100 0.224969
9 5 17 100 0.318383
11 5 17 100 0.333335
12 5 17 100 0.0138981
14 5 17 100 1.21195e-05
0 6 17 100 0.665175
9 6 17 100 2.47543e-05
12 6 17 100 0.000881363
13 6 17 100 0.332428
14 6 17 100 0.000262933
16 6 17 100 0.0012281
0 7 17 100 0.499999
9 7 17 100 0.5
2 8 17 100 0.00130199
10 8 17 100 0.5
14 8 17 100 0.498698
11 9 17 100 0.5
14 9 17 100 0.5
0 10 17 100 0.000805027
12 10 17 100 0.0946375
14 10 17 100 0.404555
15 10 17 100 0.500002
0 11 17 100 0.000315921
15 11 17 100 0.499625
16 11 17 100 0.500059
0 12 17 100 0.0542439
3 12 17 100 9.14105e-05
12 12 17 100 7.03813e-05
16 12 17 100 0.945594
17 13 17 100 1
0 1 18 100 0.000140331
1 1 18 100 0.0411697
2 1 18 100 0.000284218
7 1 18 100 0.0650229
8 1 18 100 0.893084
9 1 18 100 0.000149232
13 1 18 100 0.000149232
1 2 18 100 0.499988
9 2 18 100 0.5
11 2 18 100 1.21416e-05
1 3 18 100 0.0388577
3 3 18 100 0.184975
4 3 18 100 0.358036
5 3 18 100 0.416488
10 3 18 100 0.000930596
14 3 18 100 0.000712802
0 4 18 100 0.0170023
2 4 18 100 0.0124844
6 4 18 100 0.970513
0 5 18 100 7.52023e-05
3 5 18 100 2.63271e-05
4 5 18 100 0.00473371
9 5 18 100 0.000153759
10 5 18 100 0.176325
11 5 18 100 0.495226
13 5 18 100 0.000153759
14 5 18 100 0.323306
0 6 18 100 0.499586
9 6 18 100 5.40162e-06
12 6 18 100 0.500403
13 6 18 100 5.40162e-06
9 7 18 100 0.000176409
13 7 18 100 0.500179
15 7 18 100 0.499645
0 8 18 100 0.499095
9 8 18 100 1.18218e-05
12 8 18 100 0.000881008
13 8 18 100 1.18218e-05
14 8 18 100 0.5
16 9 18 100 0.998357
17 9 18 100 0.00164337
0 10 18 100 0.000777251
5 10 18 100 1.55207e-05
7 10 18 100 0.000164522
17 10 18 100 0.499043
18 10 18 100 0.5
18 11 18 100 1
0 1 19 100 0.0010352
2 1 19 100 0.000747719
7 1 19 100 0.998183
8 1 19 100 1.60674e-05
12 1 19 100 1.78293e-05
1 2 19 100 1
3 3 19 100 0.997467
9 3 19 100 0.00253338
0 4 19 100 0.00265309
5 4 19 100 0.996574
6 4 19 100 0.000773271
0 5 19 100 0.000356412
9 5 19 100 0.999536
12 5 19 100 0.000107834
0 6 19 100 0.626316
11 6 19 100 0.37129
12 6 19 100 0.00239364
2 7 19 100 5.16515e-05
12 7 19 100 0.999948
13 8 19 100 1
0 9 19 100 0.000122174
14 9 19 100 0.999878
0 10 19 100 0.985371
5 10 19 100 0.00162947
6 10 19 100 0.000439452
18 10 19 100 0.0125597
4 11 19 100 0.000560257
16 11 19 100 0.00451216
19 11 19 100 0.994928
0 12 19 100 1.42235e-05
19 12 19 100 0.999986
0 13 19 100 0.00642634
4 13 19 100 1.76766e-05
6 13 19 100 0.000159897
16 13 19 100 0.993227
18 13 19 100 0.000169185
17 14 19 100 1
0 15 19 100 0.111698
4 15 19 100 0.000267574
6 15 19 100 0.00247024
16 15 19 100 0.000902727
18 15 19 100 0.884662
15 16 19 100 1
1 1 20 100 0.231746
8 1 20 100 0.768254
9 2 20 100 1
10 3 20 100 1
0 4 20 100 0.845662
2 4 20 100 0.0943365
5 4 20 100 0.000148795
7 4 20 100 0.0115632
11 4 20 100 0.0482261
19 4 20 100 6.34159e-05
0 5 20 100 3.93166e-05
3 5 20 100 1.83165e-05
4 5 20 100 0.00326159
10 5 20 100 0.993418
11 5 20 100 0.00326296
0 6 20 100 1
12 7 20 100 1
14 8 20 100 1
0 9 20 100 2.75345e-05
13 9 20 100 0.00324899
15 9 20 100 0.996723
0 10 20 100 0.904508
2 10 20 100 0.00984383
5 10 20 100 1.55265e-05
7 10 20 100 0.00120659
11 10 20 100 0.0729293
19 10 20 100 0.0114965
17 11 20 100 0.0493825
20 11 20 100 0.950617
0 12 20 100 0.00289857
17 12 20 100 0.997064
19 12 20 100 3.72673e-05
18 13 20 100 1
0 14 20 100 0.0190272
5 14 20 100 1.87137e-05
17 14 20 100 0.000157788
19 14 20 100 0.980796
16 15 20 100 1
1 1 21 100 0.0437403
2 1 21 100 4.21556e-05
3 1 21 100 0.00011333
5 1 21 100 4.21556e-05
6 1 21 100 0.249092
8 1 21 100 0.456311
9 1 21 100 0.000324382
10 1 21 100 0.249913
11 1 21 100 2.6397e-06
13 1 21 100 0.000418581
1 2 21 100 0.000393979
2 2 21 100 0.000195693
8 2 21 100 0.221214
9 2 21 100 0.249433
10 2 21 100 0.278763
11 2 21 100 0.0254997
14 2 21 100 0.2245
1 3 21 100 0.249725
3 3 21 100 0.0642582
4 3 21 100 2.04117e-05
6 3 21 100 0.0509184
10 3 21 100 0.00949079
11 3 21 100 0.24048
12 3 21 100 0.250005
15 3 21 100 0.135093
19 3 21 100 8.95076e-06
0 4 21 100 0.437659
1 4 21 100 0.00548677
3 4 21 100 0.000197068
5 4 21 100 0.0282859
7 4 21 100 0.0277728
8 4 21 100 0.25
12 4 21 100 0.249946
14 4 21 100 1.69069e-05
16 4 21 100 0.000556226
18 4 21 100 3.4225e-05
20 4 21 100 4.58795e-05
0 5 21 100 0.00283886
2 5 21 100 0.497089
3 5 21 100 4.17901e-05
4 5 21 100 4.39914e-06
7 5 21 100 3.1451e-05
12 5 21 100 6.55179e-06
13 5 21 100 0.000359347
14 5 21 100 0.0639883
15 5 21 100 0.185633
16 5 21 100 0.249994
17 5 21 100 4.94312e-06
19 5 21 100 8.75005e-06
0 6 21 100 0.501122
1 6 21 100 5.02637e-06
2 6 21 100 3.17754e-06
3 6 21 100 0.246116
4 6 21 100 0.247648
5 6 21 100 3.17754e-06
7 6 21 100 0.000511599
11 6 21 100 0.00200655
13 6 21 100 1.05848e-05
17 6 21 100 0.00257312
0 7 21 100 0.25
2 7 21 100 0.000100275
3 7 21 100 3.27379e-06
4 7 21 100 0.25
5 7 21 100 0.000100275
6 7 21 100 3.27379e-06
16 7 21 100 0.0331065
17 7 21 100 0.242708
18 7 21 100 0.223979
0 8 21 100 0.249997
6 8 21 100 0.25
12 8 21 100 0.25
17 8 21 100 2.74155e-06
19 8 21 100 0.25
0 9 21 100 0.250499
4 9 21 100 0.000211344
13 9 21 100 5.78404e-06
14 9 21 100 0.250001
15 9 21 100 0.250001
20 9 21 100 0.249282
7 10 21 100 0.0060286
15 10 21 100 0.25
17 10 21 100 0.25
20 10 21 100 0.243971
21 10 21 100 0.25
0 11 21 100 0.00961933
5 11 21 100 5.1227e-05
7 11 21 100 0.00284989
9 11 21 100 0.00090511
16 11 21 100 0.0714548
18 11 21 100 0.594784
20 11 21 100 0.320335
0 12 21 100 0.000529762
19 12 21 100 0.666493
20 12 21 100 4.47569e-05
21 12 21 100 0.332933
0 13 21 100 0.0063279
5 13 21 100 0.000361478
7 13 21 100 0.000276049
16 13 21 100 7.33651e-05
20 13 21 100 0.992961
21 14 21 100 1
1 1 23 100 0.0405249
2 1 23 100 0.959453
14 1 23 100 2.17876e-05
0 2 23 100 0.0028231
1 2 23 100 0.000258241
3 2 23 100 0.532767
4 2 23 100 0.464139
10 2 23 100 5.29644e-06
15 2 23 100 7.19846e-06
5 3 23 100 0.618121
8 3 23 100 0.257814
10 3 23 100 0.124023
11 3 23 100 3.36796e-05
21 3 23 100 8.29022e-06
6 4 23 100 0.5
11 4 23 100 0.5
5 5 23 100 7.97107e-06
7 5 23 100 0.0613174
9 5 23 100 0.384954
12 5 23 100 0.0540244
13 5 23 100 0.067655
16 5 23 100 0.00593554
17 5 23 100 0.426092
19 5 23 100 5.17592e-06
21 5 23 100 9.16214e-06
0 6 23 100 0.497305
13 6 23 100 6.62216e-05
16 6 23 100 0.499826
19 6 23 100 0.0026943
21 6 23 100 0.000108305
7 7 23 100 1.49994e-05
12 7 23 100 3.64143e-05
17 7 23 100 0.151854
18 7 23 100 0.034666
19 7 23 100 0.353282
20 7 23 100 0.460147
0 8 23 100 0.499998
23 8 23 100 0.500002
0 9 23 100 0.00150636
9 9 23 100 3.04105e-05
22 9 23 100 0.998463
23 10 23 100 1
2 1 25 100 8.81184e-05
5 1 25 100 8.81184e-05
10 1 25 100 0.499765
11 1 25 100 5.5178e-06
12 1 25 100 1.04236e-05
18 1 25 100 0.499989
22 1 25 100 5.35977e-05
11 2 25 100 0.0533023
14 2 25 100 0.446698
20 2 25 100 0.5
1 3 25 100 0.472174
3 3 25 100 0.133745
6 3 25 100 0.106435
12 3 25 100 1.08706e-05
15 3 25 100 0.259809
21 3 25 100 0.0278258
0 4 25 100 0.00339045
2 4 25 100 8.4177e-06
3 4 25 100 0.43198
5 4 25 100 0.0638733
8 4 25 100 0.500001
17 4 25 100 2.82111e-05
19 4 25 100 4.99132e-05
21 4 25 100 0.000668959
0 5 25 100 0.000574231
5 5 25 100 0.000277062
7 5 25 100 0.499104
8 5 25 100 4.48067e-05
12 5 25 100 1.36953e-05
16 5 25 100 0.499986
0 6 25 100 0.509005
3 6 25 100 7.37534e-06
4 6 25 100 0.000308341
5 6 25 100 6.8559e-05
8 6 25 100 0.490075
13 6 25 100 8.22849e-06
17 6 25 100 8.19141e-05
19 6 25 100 7.61941e-05
21 6 25 100 0.000369174
2 7 25 100 0.000209606
5 7 25 100 0.000209606
9 7 25 100 0.5
17 7 25 100 0.474412
18 7 25 100 0.0251687
0 8 25 100 0.00813033
4 8 25 100 0.000173874
11 8 25 100 0.500002
19 8 25 100 0.491694
0 9 25 100 0.065198
16 9 25 100 0.434747
20 9 25 100 0.5
23 9 25 100 5.51655e-05
7 10 25 100 0.000229313
21 10 25 100 0.499135
24 10 25 100 0.500636
0 11 25 100 0.150369
3 11 25 100 4.06203e-05
5 11 25 100 0.000142853
7 11 25 100 3.1043e-05
8 11 25 100 9.64818e-05
9 11 25 100 9.8591e-06
17 11 25 100 0.347517
19 11 25 100 0.000501577
21 11 25 100 0.00272223
23 11 25 100 0.498569
0 12 25 100 0.00137514
25 12 25 100 0.998625
