2 0 100 2 1
1 1 100 2 1
2 2 100 2 1
2 0 100 3 0.0164474
3 0 100 3 0.983553
1 1 100 3 1
1 2 100 3 0.995113
3 2 100 3 0.00488666
2 3 100 3 1
1 4 100 3 0.000521493
2 4 100 3 0.254567
3 4 100 3 0.744911
2 5 100 3 0.00650064
3 5 100 3 0.993499
2 0 100 4 0.0613235
3 0 100 4 0.280426
4 0 100 4 0.658251
1 1 100 4 1
1 2 100 4 0.20148
2 2 100 4 0.79852
1 3 100 4 0.357937
2 3 100 4 0.642063
2 4 100 4 1
2 5 100 4 0.0743114
3 5 100 4 0.925367
4 5 100 4 0.00032114
1 6 100 4 3.74343e-06
2 6 100 4 0.0676063
3 6 100 4 0.0858578
4 6 100 4 0.846532
2 7 100 4 4.29128e-06
3 7 100 4 0.743258
4 7 100 4 0.256738
3 8 100 4 0.000163515
4 8 100 4 0.999836
2 0 100 5 0.262591
3 0 100 5 0.334738
4 0 100 5 0.000401942
5 0 100 5 0.402269
1 1 100 5 1
1 2 100 5 0.638795
2 2 100 5 0.0253956
3 2 100 5 0.33581
2 3 100 5 0.897483
4 3 100 5 0.0511888
5 3 100 5 0.0513279
2 4 100 5 0.140968
3 4 100 5 0.623891
4 4 100 5 0.235141
2 5 100 5 0.000216057
3 5 100 5 0.11835
4 5 100 5 0.638833
5 5 100 5 0.242601
1 6 100 5 2.49873e-05
2 6 100 5 0.00756234
4 6 100 5 0.19701
5 6 100 5 0.795403
1 7 100 5 2.30441e-06
2 7 100 5 0.0773464
3 7 100 5 0.000326825
4 7 100 5 0.233818
5 7 100 5 0.688507
2 8 100 5 7.66604e-05
3 8 100 5 0.281764
4 8 100 5 0.288214
5 8 100 5 0.429946
2 9 100 5 0.000126169
4 9 100 5 0.999874
1 10 100 5 0.000119244
2 10 100 5 0.9506
4 10 100 5 0.0492806
2 11 100 5 6.1551e-05
4 11 100 5 4.98787e-05
5 11 100 5 0.999889
2 0 100 6 0.150218
3 0 100 6 0.270468
4 0 100 6 0.263968
5 0 100 6 0.105703
6 0 100 6 0.209644
1 1 100 6 0.997491
2 1 100 6 0.00239167
3 1 100 6 0.00011714
1 2 100 6 0.522465
2 2 100 6 0.477244
3 2 100 6 0.000281162
5 2 100 6 6.33973e-06
6 2 100 6 3.49927e-06
2 3 100 6 0.621135
3 3 100 6 0.188255
4 3 100 6 0.190605
5 3 100 6 6.12337e-06
2 4 100 6 0.371883
3 4 100 6 0.301237
4 4 100 6 0.0790107
5 4 100 6 0.24787
3 5 100 6 0.425847
4 5 100 6 0.284846
5 5 100 6 0.000726391
6 5 100 6 0.288581
2 6 100 6 3.17013e-05
3 6 100 6 0.0823435
4 6 100 6 0.30066
5 6 100 6 0.466635
6 6 100 6 0.15033
2 7 100 6 0.0681297
4 7 100 6 0.401985
5 7 100 6 0.176623
6 7 100 6 0.353263
2 8 100 6 0.0022035
3 8 100 6 0.474026
4 8 100 6 0.00674291
5 8 100 6 0.156045
6 8 100 6 0.360982
2 9 100 6 0.02116
3 9 100 6 0.000169317
4 9 100 6 0.128922
5 9 100 6 0.564373
6 9 100 6 0.285375
1 10 100 6 0.278039
2 10 100 6 5.86971e-05
3 10 100 6 0.000108349
4 10 100 6 0.721793
5 10 100 6 7.30588e-07
2 11 100 6 6.57276e-05
3 11 100 6 1.16195e-05
4 11 100 6 0.00020644
5 11 100 6 0.999138
6 11 100 6 0.000578355
1 12 100 6 1.59094e-06
2 12 100 6 0.982519
3 12 100 6 0.00185978
5 12 100 6 0.0156195
2 13 100 6 7.51441e-05
3 13 100 6 0.227528
4 13 100 6 1.22086e-05
5 13 100 6 2.66335e-05
6 13 100 6 0.772358
2 14 100 6 0.00039115
3 14 100 6 0.654136
4 14 100 6 0.308698
5 14 100 6 0.00308432
6 14 100 6 0.0336908
1 15 100 6 0.926447
2 15 100 6 0.0735433
3 15 100 6 9.43998e-06
3 16 100 6 0.0515947
6 16 100 6 0.948405
2 17 100 6 0.00384258
3 17 100 6 0.0103886
4 17 100 6 0.985769
3 0 100 7 0.00288943
4 0 100 7 0.72349
5 0 100 7 0.133201
6 0 100 7 0.00188092
7 0 100 7 0.138538
1 1 100 7 0.397157
3 1 100 7 4.24569e-05
6 1 100 7 0.6028
1 2 100 7 0.0681284
2 2 100 7 0.311406
7 2 100 7 0.620466
1 3 100 7 0.54323
2 3 100 7 0.228386
3 3 100 7 0.228384
1 4 100 7 0.510197
2 4 100 7 0.209877
3 4 100 7 0.0698754
5 4 100 7 0.209984
7 4 100 7 6.74602e-05
1 5 100 7 7.4989e-05
2 5 100 7 0.619062
3 5 100 7 0.379769
4 5 100 7 0.000183058
5 5 100 7 0.000681179
7 5 100 7 0.000229536
1 6 100 7 0.000260083
3 6 100 7 0.395828
4 6 100 7 0.193613
5 6 100 7 0.208341
6 6 100 7 0.193966
7 6 100 7 0.007992
2 7 100 7 0.0883399
5 7 100 7 0.455986
6 7 100 7 0.227682
7 7 100 7 0.227993
2 8 100 7 0.249352
3 8 100 7 0.25022
6 8 100 7 0.250208
7 8 100 7 0.25022
2 9 100 7 0.000472321
3 9 100 7 0.482634
4 9 100 7 1.67992e-06
5 9 100 7 0.482765
6 9 100 7 0.0341273
2 10 100 7 8.80564e-06
3 10 100 7 6.76534e-05
4 10 100 7 0.227916
5 10 100 7 0.2866
6 10 100 7 0.198741
7 10 100 7 0.286668
6 11 100 7 0.000270108
7 11 100 7 0.99973
2 0 100 8 0.00182416
3 0 100 8 0.204624
4 0 100 8 0.448071
5 0 100 8 0.0210796
7 0 100 8 0.00144146
8 0 100 8 0.32296
1 1 100 8 1
1 2 100 8 0.998982
3 2 100 8 0.000784824
4 2 100 8 0.00023303
2 3 100 8 0.288342
3 3 100 8 0.470217
4 3 100 8 0.000244481
5 3 100 8 0.241197
2 4 100 8 0.863023
4 4 100 8 0.136977
2 5 100 8 0.500017
3 5 100 8 0.499983
3 6 100 8 0.230568
4 6 100 8 0.769432
5 7 100 8 0.99974
7 7 100 8 0.000120227
8 7 100 8 0.000140287
6 8 100 8 0.999786
8 8 100 8 0.000213566
2 9 100 8 0.361616
5 9 100 8 0.278419
7 9 100 8 0.359965
1 10 100 8 2.20694e-05
2 10 100 8 2.80641e-05
3 10 100 8 0.0905837
4 10 100 8 0.00889707
5 10 100 8 0.436535
6 10 100 8 9.19273e-06
7 10 100 8 0.000207881
8 10 100 8 0.463717
2 11 100 8 2.08049e-05
3 11 100 8 0.00142272
4 11 100 8 0.0116052
5 11 100 8 0.000215565
6 11 100 8 0.986736
2 12 100 8 0.0700792
3 12 100 8 0.0147295
4 12 100 8 1.97801e-05
5 12 100 8 0.758193
6 12 100 8 0.000141608
7 12 100 8 0.156837
4 13 100 8 9.42345e-05
6 13 100 8 0.00114516
7 13 100 8 0.905074
8 13 100 8 0.0936871
2 14 100 8 1
1 15 100 8 1
3 16 100 8 0.000331635
4 16 100 8 0.0040234
5 16 100 8 0.0426746
6 16 100 8 0.915034
7 16 100 8 0.0379366
4 17 100 8 0.000845734
5 17 100 8 0.430585
6 17 100 8 0.00614099
7 17 100 8 0.562428
4 19 100 8 4.17093e-06
5 19 100 8 0.56951
6 19 100 8 0.00050176
7 19 100 8 0.429984
2 20 100 8 0.918853
5 20 100 8 0.0720946
6 20 100 8 0.00038756
7 20 100 8 0.00866476
2 21 100 8 4.9141e-06
5 21 100 8 2.94275e-05
6 21 100 8 0.999857
7 21 100 8 0.000108591
5 22 100 8 0.015834
7 22 100 8 0.984166
5 23 100 8 0.000864642
7 23 100 8 0.0914104
8 23 100 8 0.907725
4 0 100 9 0.298573
5 0 100 9 1.14142e-05
6 0 100 9 0.34349
7 0 100 9 0.336072
8 0 100 9 0.021854
1 1 100 9 0.99982
2 1 100 9 2.02665e-05
6 1 100 9 2.20239e-05
8 1 100 9 0.000137307
1 2 100 9 0.000482457
4 2 100 9 0.999518
3 3 100 9 1
5 4 100 9 0.999983
8 4 100 9 1.73139e-05
4 5 100 9 0.0214908
6 5 100 9 0.976035
8 5 100 9 0.00247389
1 6 100 9 0.987919
4 6 100 9 0.0120814
1 7 100 9 1
2 8 100 9 1
3 9 100 9 0.666844
5 9 100 9 0.333156
4 10 100 9 0.0907235
5 10 100 9 0.00360408
6 10 100 9 0.00493266
7 10 100 9 0.0134424
8 10 100 9 0.887297
2 11 100 9 2.51404e-06
3 11 100 9 4.79346e-06
4 11 100 9 0.000658195
5 11 100 9 0.00358384
7 11 100 9 0.500376
8 11 100 9 9.81742e-07
9 11 100 9 0.495374
4 12 100 9 6.99287e-06
5 12 100 9 0.000204502
6 12 100 9 1.49864e-06
7 12 100 9 9.63391e-06
8 12 100 9 0.999777
8 13 100 9 5.72801e-05
9 13 100 9 0.999943
4 0 100 10 0.00850287
5 0 100 10 7.00178e-06
6 0 100 10 0.493253
8 0 100 10 0.497148
9 0 100 10 0.00108965
1 1 100 10 0.50809
2 1 100 10 0.0123523
3 1 100 10 0.479558
1 2 100 10 0.974894
2 2 100 10 0.000763155
4 2 100 10 0.024343
1 3 100 10 0.000416158
2 3 100 10 0.917536
3 3 100 10 0.0819878
5 3 100 10 4.83377e-05
7 3 100 10 1.20216e-05
3 4 100 10 0.00853451
5 4 100 10 0.991465
3 5 100 10 0.999985
5 5 100 10 1.4909e-05
1 6 100 10 0.000481492
4 6 100 10 0.999505
7 6 100 10 1.39089e-05
1 7 100 10 0.999877
4 7 100 10 0.000123147
1 8 100 10 0.776042
3 8 100 10 0.223958
2 9 100 10 0.999985
9 9 100 10 1.52223e-05
3 10 100 10 1
3 11 100 10 0.325813
4 11 100 10 0.338711
5 11 100 10 0.335477
3 12 100 10 5.65311e-06
4 12 100 10 0.49893
5 12 100 10 0.00527948
6 12 100 10 0.495629
7 12 100 10 0.000148996
8 12 100 10 7.18038e-07
9 12 100 10 6.51329e-06
1 13 100 10 1.66904e-05
3 13 100 10 1.06226e-06
4 13 100 10 0.000276422
5 13 100 10 0.296838
6 13 100 10 7.46701e-05
7 13 100 10 0.702605
8 13 100 10 1.7095e-05
9 13 100 10 0.00017063
1 14 100 10 2.89585e-05
2 14 100 10 4.94478e-06
3 14 100 10 4.40188e-05
4 14 100 10 2.93634e-06
5 14 100 10 0.225801
6 14 100 10 2.94054e-06
7 14 100 10 0.000277174
8 14 100 10 0.773837
9 14 100 10 1.5457e-06
2 15 100 10 0.0002273
3 15 100 10 3.94418e-05
4 15 100 10 1.3041e-05
5 15 100 10 0.965021
6 15 100 10 0.0277195
7 15 100 10 0.00617467
8 15 100 10 0.000803096
9 15 100 10 2.19723e-06
2 16 100 10 2.25952e-05
3 16 100 10 0.000158161
5 16 100 10 0.00524499
6 16 100 10 0.000445579
7 16 100 10 0.259383
8 16 100 10 0.000312465
9 16 100 10 0.734433
2 17 100 10 3.65806e-05
3 17 100 10 2.27242e-05
5 17 100 10 0.873121
6 17 100 10 0.0210079
7 17 100 10 0.0199155
8 17 100 10 0.0818444
9 17 100 10 0.00405203
2 18 100 10 6.56159e-06
3 18 100 10 2.72695e-06
5 18 100 10 0.000253394
6 18 100 10 0.00144347
7 18 100 10 0.400572
8 18 100 10 0.0116461
9 18 100 10 2.67464e-05
10 18 100 10 0.586049
2 19 100 10 0.000267158
3 19 100 10 0.0287199
5 19 100 10 0.248092
6 19 100 10 0.255825
7 19 100 10 0.41638
8 19 100 10 0.0451407
9 19 100 10 0.00557573
4 20 100 10 9.67273e-07
5 20 100 10 1.50229e-05
6 20 100 10 0.000568725
7 20 100 10 0.482144
8 20 100 10 0.000626625
9 20 100 10 0.516644
2 21 100 10 1.18889e-05
3 21 100 10 0.000138527
4 21 100 10 3.682e-06
5 21 100 10 0.0024719
6 21 100 10 6.63592e-05
7 21 100 10 0.00500424
8 21 100 10 0.00117008
9 21 100 10 0.00039042
10 21 100 10 0.990743
6 22 100 10 1.34008e-05
8 22 100 10 0.000144872
9 22 100 10 0.999842
10 23 100 10 1
1 0 100 11 9.36351e-05
5 0 100 11 4.07809e-05
6 0 100 11 0.333346
8 0 100 11 0.333018
10 0 100 11 0.333502
1 1 100 11 0.380694
2 1 100 11 0.619306
1 2 100 11 0.000568111
4 2 100 11 0.999432
3 3 100 11 0.988918
5 3 100 11 0.0110815
3 4 100 11 0.418045
5 4 100 11 0.581955
1 5 100 11 0.999919
10 5 100 11 8.06007e-05
2 6 100 11 0.499915
4 6 100 11 0.500085
3 7 100 11 0.991797
5 7 100 11 0.000445063
10 7 100 11 0.00775746
1 8 100 11 0.998096
10 8 100 11 0.00190404
1 9 100 11 0.000311247
3 9 100 11 0.998964
5 9 100 11 0.00032069
6 9 100 11 1.1266e-05
7 9 100 11 0.000367929
8 9 100 11 2.46563e-05
3 10 100 11 0.00522102
5 10 100 11 0.98925
9 10 100 11 0.00552893
2 11 100 11 2.42827e-05
6 11 100 11 0.999976
6 12 100 11 0.000803041
7 12 100 11 0.997439
8 12 100 11 0.0017575
1 13 100 11 0.000137895
2 13 100 11 1.32919e-05
3 13 100 11 1.3939e-05
5 13 100 11 0.00250446
6 13 100 11 0.000593473
7 13 100 11 0.000886396
8 13 100 11 0.995844
9 13 100 11 2.7436e-06
10 13 100 11 4.09076e-06
2 14 100 11 0.000220923
3 14 100 11 0.000647449
5 14 100 11 0.997198
6 14 100 11 0.000294894
7 14 100 11 0.00142123
8 14 100 11 0.000101674
9 14 100 11 3.75986e-06
10 14 100 11 0.000111978
2 15 100 11 3.13574e-05
4 15 100 11 0.00169076
5 15 100 11 0.000215518
6 15 100 11 6.22209e-05
7 15 100 11 0.497218
8 15 100 11 6.22209e-05
9 15 100 11 0.499375
10 15 100 11 0.00134448
2 16 100 11 1.94602e-05
4 16 100 11 9.2799e-05
5 16 100 11 0.000558149
6 16 100 11 1.77502e-05
7 16 100 11 0.00119998
8 16 100 11 5.62383e-05
9 16 100 11 0.472806
10 16 100 11 0.0483028
11 16 100 11 0.476946
2 17 100 11 3.66286e-06
3 17 100 11 1.24918e-06
4 17 100 11 9.88594e-06
5 17 100 11 8.33204e-05
7 17 100 11 4.14495e-05
8 17 100 11 2.74004e-06
9 17 100 11 0.00762502
10 17 100 11 0.992233
2 18 100 11 3.80022e-06
4 18 100 11 8.34135e-05
5 18 100 11 0.000140827
7 18 100 11 2.36246e-05
9 18 100 11 0.000190801
10 18 100 11 0.00265358
11 18 100 11 0.996904
4 0 100 12 0.00193603
5 0 100 12 0.000327899
6 0 100 12 0.575693
8 0 100 12 0.00464261
9 0 100 12 0.32249
11 0 100 12 0.0937822
12 0 100 12 0.00112806
3 1 100 12 1
1 2 100 12 0.288653
4 2 100 12 0.0140915
6 2 100 12 0.0106386
7 2 100 12 0.686617
3 3 100 12 0.377248
4 3 100 12 0.622683
6 3 100 12 1.06313e-05
11 3 100 12 5.85527e-05
6 4 100 12 0.648704
8 4 100 12 0.102389
9 4 100 12 0.248907
1 5 100 12 0.00265479
4 5 100 12 0.983412
5 5 100 12 0.00426573
6 5 100 12 0.0011534
7 5 100 12 0.00631492
11 5 100 12 0.00219941
3 6 100 12 1
5 7 100 12 0.967825
10 7 100 12 0.0238251
11 7 100 12 0.00834963
4 8 100 12 0.671044
5 8 100 12 3.00673e-05
6 8 100 12 0.328861
11 8 100 12 6.47436e-05
7 9 100 12 0.997272
11 9 100 12 0.00272758
1 10 100 12 1
1 11 100 12 1.78669e-05
2 11 100 12 0.172596
8 11 100 12 0.827387
1 12 100 12 0.178199
3 12 100 12 0.363654
5 12 100 12 0.458146
6 13 100 12 0.717618
9 13 100 12 0.282382
2 14 100 12 0.837422
3 14 100 12 1.74676e-05
4 14 100 12 0.162495
5 14 100 12 2.38198e-06
9 14 100 12 6.30017e-05
3 15 100 12 0.743348
5 15 100 12 0.256648
9 15 100 12 4.55768e-06
2 16 100 12 3.42844e-05
3 16 100 12 9.02981e-05
4 16 100 12 0.0056175
5 16 100 12 0.827263
6 16 100 12 0.00845464
7 16 100 12 0.00204556
9 16 100 12 0.156494
2 17 100 12 2.95546e-06
3 17 100 12 2.23585e-05
4 17 100 12 0.00258185
5 17 100 12 3.16053e-05
6 17 100 12 0.0034228
7 17 100 12 0.848694
9 17 100 12 1.45215e-05
10 17 100 12 5.31564e-06
11 17 100 12 0.145225
1 18 100 12 0.955651
3 18 100 12 0.000481222
5 18 100 12 7.28995e-05
6 18 100 12 0.000321009
7 18 100 12 0.0421556
8 18 100 12 0.000539098
9 18 100 12 0.000321588
10 18 100 12 0.000441862
11 18 100 12 1.57874e-05
2 19 100 12 0.000356013
4 19 100 12 0.00222632
5 19 100 12 3.59335e-06
6 19 100 12 0.000107085
7 19 100 12 5.81257e-07
8 19 100 12 0.93059
10 19 100 12 3.42494e-06
11 19 100 12 0.0667126
2 20 100 12 0.276143
3 20 100 12 6.50206e-05
4 20 100 12 3.25727e-06
6 20 100 12 6.51722e-07
8 20 100 12 0.000116825
9 20 100 12 0.276391
10 20 100 12 0.206239
11 20 100 12 0.241042
2 21 100 12 9.50286e-06
3 21 100 12 0.0926624
4 21 100 12 0.000739181
6 21 100 12 0.000454619
8 21 100 12 0.000235926
10 21 100 12 0.302851
11 21 100 12 0.00687286
12 21 100 12 0.596174
1 22 100 12 0.970743
4 22 100 12 0.028258
6 22 100 12 5.68759e-06
11 22 100 12 0.00099333
4 23 100 12 0.000406124
6 23 100 12 3.37472e-05
9 23 100 12 0.00735074
11 23 100 12 0.992209
3 24 100 12 4.8732e-05
4 24 100 12 0.000603532
6 24 100 12 1.28802e-06
8 24 100 12 8.28039e-05
9 24 100 12 1.26124e-06
10 24 100 12 0.997293
11 24 100 12 0.00196986
4 25 100 12 0.000886673
6 25 100 12 4.06536e-06
8 25 100 12 0.000206764
10 25 100 12 0.000502516
11 25 100 12 0.0913493
12 25 100 12 0.907051
4 0 100 13 0.0297557
6 0 100 13 0.459673
7 0 100 13 0.459672
10 0 100 13 0.000740096
11 0 100 13 0.00029044
12 0 100 13 0.0498689
1 1 100 13 0.000731757
2 1 100 13 0.498476
3 1 100 13 0.500792
4 2 100 13 0.997403
8 2 100 13 0.00259716
3 3 100 13 0.00213017
4 3 100 13 0.995861
5 3 100 13 0.00181386
12 3 100 13 0.000194671
3 4 100 13 0.0142311
5 4 100 13 0.985769
1 5 100 13 1
2 6 100 13 1
1 7 100 13 0.940296
5 7 100 13 0.0597043
1 8 100 13 1.51564e-05
5 8 100 13 0.999985
3 9 100 13 0.0325953
6 9 100 13 7.18366e-05
7 9 100 13 0.967333
3 10 100 13 0.490285
8 10 100 13 0.509715
5 11 100 13 0.5
9 11 100 13 0.5
6 12 100 13 0.013767
10 12 100 13 0.9855
12 12 100 13 0.000732913
6 13 100 13 1
8 14 100 13 0.355387
9 14 100 13 0.356315
10 14 100 13 0.288297
9 15 100 13 0.00319684
10 15 100 13 0.501547
11 15 100 13 0.495196
12 15 100 13 6.09718e-05
2 16 100 13 1.26529e-06
3 16 100 13 4.55656e-07
4 16 100 13 0.0002803
5 16 100 13 1.98715e-06
6 16 100 13 1.59199e-06
8 16 100 13 1.24845e-05
9 16 100 13 8.15953e-06
10 16 100 13 0.000226885
11 16 100 13 0.362729
12 16 100 13 0.636738
2 17 100 13 9.96927e-07
4 17 100 13 0.000721854
9 17 100 13 1.03765e-05
10 17 100 13 1.59943e-05
11 17 100 13 0.00167917
12 17 100 13 0.0452276
13 17 100 13 0.952344
4 0 100 14 0.626857
5 0 100 14 0.00406655
6 0 100 14 0.00588605
7 0 100 14 0.358115
11 0 100 14 0.000403607
12 0 100 14 0.00013915
13 0 100 14 0.00453222
1 1 100 14 0.146298
2 1 100 14 7.57767e-05
3 1 100 14 0.835257
4 1 100 14 0.0183516
6 1 100 14 1.68117e-05
5 2 100 14 1
3 3 100 14 0.00111519
4 3 100 14 0.000799046
5 3 100 14 0.000169445
6 3 100 14 0.997916
6 4 100 14 0.497236
7 4 100 14 0.502764
4 5 100 14 0.992312
11 5 100 14 0.00134783
13 5 100 14 0.00634055
1 6 100 14 0.498976
8 6 100 14 0.501024
4 7 100 14 0.976061
5 7 100 14 0.00110549
6 7 100 14 0.0179825
13 7 100 14 0.00485149
1 8 100 14 0.482845
2 8 100 14 0.517155
1 9 100 14 1
2 10 100 14 1
6 11 100 14 1
3 12 100 14 0.5
8 12 100 14 0.5
1 13 100 14 1
4 14 100 14 6.76229e-05
9 14 100 14 0.999932
9 15 100 14 0.5
10 15 100 14 0.5
4 16 100 14 0.052093
5 16 100 14 0.000788796
9 16 100 14 2.21539e-05
10 16 100 14 4.12485e-05
11 16 100 14 0.945057
12 16 100 14 7.17097e-06
13 16 100 14 0.00199024
4 17 100 14 0.000340721
5 17 100 14 2.75462e-06
10 17 100 14 0.919648
11 17 100 14 0.0799272
12 17 100 14 3.95756e-05
13 17 100 14 4.17041e-05
2 18 100 14 1.64189e-05
3 18 100 14 2.74923e-05
4 18 100 14 0.000142732
5 18 100 14 3.35044e-05
9 18 100 14 0.000179412
10 18 100 14 0.00015795
11 18 100 14 0.991786
12 18 100 14 0.00758211
13 18 100 14 7.45922e-05
3 19 100 14 2.94075e-06
4 19 100 14 0.000145863
5 19 100 14 1.24128e-06
6 19 100 14 1.42528e-06
8 19 100 14 1.01117e-05
11 19 100 14 5.26947e-05
12 19 100 14 0.99956
13 19 100 14 0.000225905
4 20 100 14 0.00306398
5 20 100 14 2.84198e-06
6 20 100 14 1.82666e-05
11 20 100 14 0.000308404
12 20 100 14 0.000213494
13 20 100 14 0.996393
4 21 100 14 1.10209e-05
9 21 100 14 6.82185e-07
11 21 100 14 3.84821e-06
12 21 100 14 4.81686e-05
13 21 100 14 0.000184348
14 21 100 14 0.999752
4 0 100 15 0.305054
5 0 100 15 1.41827e-05
6 0 100 15 0.360729
9 0 100 15 9.93254e-06
10 0 100 15 0.326284
12 0 100 15 0.0010456
14 0 100 15 0.0068637
1 1 100 15 1
4 2 100 15 0.905511
10 2 100 15 0.0944889
5 3 100 15 1
5 4 100 15 1
4 5 100 15 0.81293
10 5 100 15 0.0848282
14 5 100 15 0.102242
4 6 100 15 0.91434
10 6 100 15 0.08566
4 7 100 15 0.905511
10 7 100 15 0.0944889
1 8 100 15 1
2 9 100 15 1
3 10 100 15 0.501651
5 10 100 15 0.498349
4 11 100 15 0.387611
5 11 100 15 0.0262258
10 11 100 15 0.586163
7 12 100 15 1
9 13 100 15 1
8 14 100 15 1
9 15 100 15 1
15 16 100 15 1
4 17 100 15 1.2289e-05
10 17 100 15 0.000539103
11 17 100 15 0.0152895
12 17 100 15 0.969212
14 17 100 15 0.014947
4 18 100 15 0.000102287
10 18 100 15 0.00811601
12 18 100 15 8.37541e-05
13 18 100 15 0.991604
14 18 100 15 9.43862e-05
4 19 100 15 0.000657512
5 19 100 15 6.12791e-06
10 19 100 15 0.124017
12 19 100 15 0.0284244
13 19 100 15 1.09127e-05
14 19 100 15 0.846884
4 20 100 15 9.07578e-05
8 20 100 15 1.41137e-06
9 20 100 15 0.000745484
10 20 100 15 0.0019472
11 20 100 15 0.997004
12 20 100 15 4.70558e-05
13 20 100 15 7.40867e-06
14 20 100 15 8.23595e-05
15 20 100 15 7.44015e-05
1 0 100 16 0.000597003
4 0 100 16 0.00153005
5 0 100 16 0.000205544
6 0 100 16 0.361198
9 0 100 16 7.0458e-05
10 0 100 16 0.568269
12 0 100 16 8.20279e-06
13 0 100 16 0.0037061
15 0 100 16 0.0644166
2 1 100 16 1
1 2 100 16 0.935384
7 2 100 16 0.0646157
3 3 100 16 1
11 4 100 16 0.662628
13 4 100 16 0.0209065
15 4 100 16 0.316466
4 5 100 16 0.998368
10 5 100 16 0.00163241
4 6 100 16 0.201223
10 6 100 16 0.114355
13 6 100 16 0.0416087
15 6 100 16 0.642813
1 7 100 16 1
1 8 100 16 1
3 9 100 16 0.00252815
5 9 100 16 0.997472
2 10 100 16 1
6 11 100 16 1
1 12 100 16 1.77852e-05
5 12 100 16 0.000107568
6 12 100 16 0.00238774
7 12 100 16 0.997487
8 13 100 16 1
9 14 100 16 1
16 15 100 16 1
11 16 100 16 0.00451829
13 16 100 16 0.994578
15 16 100 16 0.000903954
14 17 100 16 1
4 18 100 16 0.000135751
5 18 100 16 8.41507e-06
10 18 100 16 0.541166
11 18 100 16 4.8174e-06
13 18 100 16 0.0248413
14 18 100 16 1.06663e-05
15 18 100 16 0.433833
4 19 100 16 1.25467e-05
9 19 100 16 0.000393195
10 19 100 16 0.00102086
11 19 100 16 0.499052
12 19 100 16 0.499418
13 19 100 16 2.42624e-05
14 19 100 16 3.83857e-06
15 19 100 16 4.18886e-05
16 19 100 16 3.28772e-05
