0 2 2.31444e-05
0 3 0.143785
0 8 0.712049
0 19 0.0470476
0 25 1.06994e-05
0 27 0.0959659
0 44 0.000193192
0 72 7.94222e-05
0 76 0.000843418
0 78 2.50175e-07
0 100 1.52795e-06
2 2 1
3 4 1
4 3 0.278366
4 8 0.469862
4 76 0.246952
4 96 0.00481966
5 5 1
6 6 1
7 7 1
8 7 1
9 5 0.502417
9 8 0.497583
10 3 1
11 9 1
12 10 1
13 2 1
14 11 1
15 3 0.652824
15 16 0.347176
16 5 0.90879
16 25 0.00287706
16 27 0.0883328
17 2 0.00601443
17 8 0.0167429
17 19 3.41272e-05
17 25 0.000679956
17 84 0.976529
18 5 1
19 12 1
20 3 1
21 13 1
22 7 1
23 14 1
24 3 1
25 14 1
26 2 0.999935
26 5 6.52245e-05
27 3 0.278918
27 21 0.721082
28 3 0.999352
28 40 0.000648479
29 15 1
30 4 6.62171e-05
30 65 0.999934
31 43 0.998234
31 83 0.00176573
32 4 1
33 5 1
34 5 1
35 19 0.991549
35 27 0.00845117
36 17 1
37 18 1
38 2 1
39 19 1
40 20 1
41 41 1
42 22 1
43 2 0.612974
43 19 0.00403056
43 23 0.00413571
43 24 0.37886
44 24 0.983565
44 25 0.0164349
45 25 1
46 90 1
47 23 1
48 2 2.9778e-05
48 23 0.58527
48 76 5.6831e-05
48 90 0.414644
49 25 0.658175
49 69 0.341825
50 26 1
51 19 0.863951
51 86 0.136049
52 19 6.7626e-05
52 74 0.999932
53 19 1
54 27 1
55 28 1
56 31 1
57 25 0.349418
57 69 0.650582
58 29 1
59 51 1
60 30 1
61 32 1
62 25 1
63 33 1
64 34 1
65 35 1
66 36 1
67 38 1
68 37 1
69 38 1
70 19 1
71 38 1
72 26 1
73 39 1
74 25 1
75 2 1
76 26 1
77 30 0.871963
77 64 0.128037
78 19 0.64783
78 23 0.35217
79 69 1
80 31 1
81 93 1
82 8 1
83 19 1
84 29 1
85 19 0.08517
85 30 0.91483
86 35 1
87 2 0.999998
87 40 1.52318e-06
88 2 0.265809
88 40 0.734157
88 74 3.40154e-05
89 2 1
90 8 1
91 44 1
92 39 1
93 42 0.771678
93 60 0.228322
94 2 1
95 45 1
96 46 1
97 45 1
98 47 1
99 42 1
100 21 0.333162
100 22 0.333419
100 47 0.333419
101 43 1
102 44 0.499988
102 48 0.500012
103 24 1
104 27 1
105 8 0.174133
105 49 0.825867
106 50 1
107 52 1
108 4 1
109 79 1
110 69 1
111 53 1
112 54 1
113 55 1
114 56 1
115 53 1
116 54 0.243806
116 84 0.756194
117 57 1
118 58 1
119 59 1
120 8 1
121 8 0.240226
121 60 0.162705
121 62 0.199023
121 99 0.398046
122 3 1
123 61 1
124 8 1
125 63 1
126 64 1
127 8 1
128 8 1
129 66 1
130 49 1
131 67 1
132 5 0.499659
132 68 0.500341
133 70 1
134 71 0.501126
134 72 0.498874
135 25 0.499993
135 73 0.500007
136 8 0.235938
136 72 0.764062
137 75 1
138 8 1
139 76 0.878559
139 96 0.121441
140 77 1
141 27 1
142 78 1
143 3 2.66505e-05
143 80 0.499987
143 88 0.499987
144 28 0.333333
144 81 0.666667
145 82 1
146 8 1
147 2 1
148 83 1
149 85 1
150 55 1
151 78 0.339493
151 86 0.660507
152 83 1
153 2 1
154 21 0.500652
154 84 0.499348
155 19 0.654392
155 86 0.345608
156 35 1
157 69 1
158 84 1
159 86 1
160 45 1
161 87 1
162 89 1
163 76 1
164 91 1
165 92 1
166 2 1
167 86 1
168 27 1
169 27 1
170 94 1
171 90 1
172 90 1
173 84 1
174 90 1
175 2 1
176 95 1
177 96 1
178 97 1
179 98 1
180 76 0.427506
180 100 0.572494
181 101 1
182 64 1
183 66 1
184 102 1
185 103 1
186 104 1
187 96 0.492602
187 105 0.507398
188 96 0.492602
188 106 0.507398
