2 0.322941 0.677059 0 0 0 0 0 0 0 0 
3 0.419707 0.55846 0.0174388 0.00439434 0 0 0 0 0 0 
4 0.562914 0.419913 0.0138559 0.00331729 0 0 0 0 0 0 
5 0.289301 0.710699 0 0 0 0 0 0 0 0 
6 0.180874 0.787472 0.0316544 0 0 0 0 0 0 0 
7 0.409705 0.57767 0.0126251 0 0 0 0 0 0 0 
8 0.183051 0.785295 0.0316544 0 0 0 0 0 0 0 
9 0.742901 0.229777 0.0273211 0 0 0 0 0 0 0 
10 0.727785 0.243238 0.0289769 0 0 0 0 0 0 0 
11 0.481809 0.492327 0.0206582 0.0052056 0 0 0 0 0 0 
12 0.180874 0.787472 0.0316544 0 0 0 0 0 0 0 
13 0.389273 0.610727 0 0 0 0 0 0 0 0 
14 0.444235 0.53335 0.0179038 0.00451152 0 0 0 0 0 0 
15 0.404232 0.583875 0.0118932 0 0 0 0 0 0 0 
16 0.450269 0.538641 0.0110896 0 0 0 0 0 0 0 
17 0.838067 0.143867 0.018066 0 0 0 0 0 0 0 
18 0.521479 0.454157 0.0194607 0.00490382 0 0 0 0 0 0 
19 0.178133 0.790692 0.0311748 0 0 0 0 0 0 0 
20 0.495655 0.478873 0.0203452 0.00512672 0 0 0 0 0 0 
21 0.111835 0.888165 0 0 0 0 0 0 0 0 
22 0.396498 0.590877 0.0126251 0 0 0 0 0 0 0 
23 0.490978 0.48355 0.0203452 0.00512672 0 0 0 0 0 0 
24 0.411846 0.575529 0.0126251 0 0 0 0 0 0 0 
25 0.75241 0.218167 0.0294227 0 0 0 0 0 0 0 
26 0.156587 0.843413 0 0 0 0 0 0 0 0 
27 0.400796 0.588946 0.0102579 0 0 0 0 0 0 0 
28 0.282313 0.658864 0.0556537 0.00316982 0 0 0 0 0 0 
29 0.475966 0.500018 0.0191827 0.00483377 0 0 0 0 0 0 
30 0.190398 0.778893 0.0307095 0 0 0 0 0 0 0 
31 0.490426 0.486224 0.0186498 0.0046995 0 0 0 0 0 0 
32 0.470373 0.529627 0 0 0 0 0 0 0 0 
33 0.291658 0.64414 0.0607389 0.00346242 0 0 0 0 0 0 
34 0.285622 0.650176 0.060739 0.00346242 0 0 0 0 0 0 
35 0.711049 0.258085 0.0308659 0 0 0 0 0 0 0 
36 0.474509 0.500019 0.0203452 0.00512672 0 0 0 0 0 0 
37 0.396498 0.590877 0.0126251 0 0 0 0 0 0 0 
38 0.189718 0.778628 0.0316544 0 0 0 0 0 0 0 
39 0.170305 0.801891 0.0278045 0 0 0 0 0 0 0 
40 0.102384 0.897616 0 0 0 0 0 0 0 0 
41 0.497631 0.480536 0.0174388 0.00439434 0 0 0 0 0 0 
42 0.100962 0.899038 0 0 0 0 0 0 0 0 
43 0.417352 0.5716 0.0110479 0 0 0 0 0 0 0 
44 0.566751 0.411696 0.0172152 0.004338 0 0 0 0 0 0 
45 0.324119 0.675881 0 0 0 0 0 0 0 0 
46 0.474366 0.525634 0 0 0 0 0 0 0 0 
47 0.28272 0.653079 0.0607389 0.00346242 0 0 0 0 0 0 
48 0.530821 0.448424 0.0165776 0.00417733 0 0 0 0 0 0 
49 0.747468 0.203782 0.0487495 0 0 0 0 0 0 0 
50 0 0.999999 0 0 0 0 0 0 0 0 
51 0.456052 0.512838 0.0271756 0.00393446 0 0 0 0 0 0 
52 0.7638 0.209638 0.0265622 0 0 0 0 0 0 0 
53 0.298435 0.701565 0 0 0 0 0 0 0 0 
54 0.133513 0.866487 0 0 0 0 0 0 0 0 
55 0.0956484 0.904352 0 0 0 0 0 0 0 0 
56 0.280948 0.65485 0.0607389 0.00346242 0 0 0 0 0 0 
57 0.33674 0.66326 0 0 0 0 0 0 0 0 
58 0.280948 0.65485 0.0607389 0.00346242 0 0 0 0 0 0 
59 0.399587 0.588164 0.0122482 0 0 0 0 0 0 0 
60 0.481809 0.492327 0.0206582 0.0052056 0 0 0 0 0 0 
61 0.180874 0.787472 0.0316544 0 0 0 0 0 0 0 
62 0.192715 0.777892 0.0293934 0 0 0 0 0 0 0 
63 0.396498 0.590877 0.0126251 0 0 0 0 0 0 0 
64 0.178133 0.790692 0.0311748 0 0 0 0 0 0 0 
65 0.110141 0.889859 0 0 0 0 0 0 0 0 
66 0.382462 0.605814 0.0117233 0 0 0 0 0 0 0 
67 0.49719 0.476946 0.0206582 0.0052056 0 0 0 0 0 0 
68 0.180874 0.787472 0.0316544 0 0 0 0 0 0 0 
69 0.402463 0.584912 0.0126251 0 0 0 0 0 0 0 
70 0.291843 0.644928 0.0598186 0.00340996 0 0 0 0 0 0 
71 0.491233 0.482903 0.0206582 0.0052056 0 0 0 0 0 0 
72 0.280948 0.65485 0.0607389 0.00346242 0 0 0 0 0 0 
73 0.110141 0.889859 0 0 0 0 0 0 0 0 
74 0.293892 0.647332 0.055606 0.00316982 0 0 0 0 0 0 
75 0.424768 0.565463 0.00976943 0 0 0 0 0 0 0 
76 0.470368 0.529632 0 0 0 0 0 0 0 0 
77 0.192027 0.776798 0.0311748 0 0 0 0 0 0 0 
78 0.396984 0.590945 0.0120715 0 0 0 0 0 0 0 
79 0.425389 0.563369 0.0112415 0 0 0 0 0 0 0 
80 0.106716 0.893284 0 0 0 0 0 0 0 0 
81 0.399587 0.588164 0.0122482 0 0 0 0 0 0 0 
82 0.344847 0.655153 0 0 0 0 0 0 0 0 
83 0.307566 0.692434 0 0 0 0 0 0 0 0 
84 0.738364 0.232214 0.0294227 0 0 0 0 0 0 0 
85 0.496258 0.477878 0.0206582 0.0052056 0 0 0 0 0 0 
86 0.396498 0.590877 0.0126251 0 0 0 0 0 0 0 
87 0.387683 0.603299 0.00901798 0 0 0 0 0 0 0 
88 0.765354 0.208802 0.0258443 0 0 0 0 0 0 0 
89 0.397048 0.590327 0.0126251 0 0 0 0 0 0 0 
90 0.486864 0.490721 0.0179038 0.00451152 0 0 0 0 0 0 
91 0.272725 0.66499 0.0589258 0.00335907 0 0 0 0 0 0 
92 0.481809 0.492327 0.0206582 0.0052056 0 0 0 0 0 0 
93 0.424555 0.575445 0 0 0 0 0 0 0 0 
94 0.405989 0.581943 0.0120681 0 0 0 0 0 0 0 
95 0.111835 0.888165 0 0 0 0 0 0 0 0 
96 0.738364 0.232214 0.0294227 0 0 0 0 0 0 0 
97 0.481809 0.492327 0.0206582 0.0052056 0 0 0 0 0 0 
98 0.111835 0.888165 0 0 0 0 0 0 0 0 
99 0.497141 0.476995 0.0206582 0.0052056 0 0 0 0 0 0 
100 0.481809 0.476942 0.0206702 0.0205783 0 0 0 0 0 0 
101 0.753746 0.216831 0.0294227 0 0 0 0 0 0 0 
102 0.481809 0.476943 0.0360421 0.0052056 0 0 0 0 0 0 
103 0.192915 0.776375 0.0307095 0 0 0 0 0 0 0 
104 0.494413 0.505587 0 0 0 0 0 0 0 0 
105 0.281839 0.718161 0 0 0 0 0 0 0 0 
106 0.39049 0.597076 0.0124338 0 0 0 0 0 0 0 
107 0.39049 0.597076 0.0124338 0 0 0 0 0 0 0 
108 0.738364 0.232214 0.0294227 0 0 0 0 0 0 0 
109 0.302413 0.635302 0.0589258 0.00335907 0 0 0 0 0 0 
110 0.39033 0.60967 0 0 0 0 0 0 0 0 
111 0.705789 0.266087 0.0281246 0 0 0 0 0 0 0 
112 0.106716 0.893284 0 0 0 0 0 0 0 0 
113 0.106912 0.893088 0 0 0 0 0 0 0 0 
114 0.110141 0.889859 0 0 0 0 0 0 0 0 
115 0.481809 0.492327 0.0206582 0.0052056 0 0 0 0 0 0 
116 0.395296 0.59298 0.0117233 0 0 0 0 0 0 0 
117 0.100962 0.899038 0 0 0 0 0 0 0 0 
118 0.180874 0.787472 0.0316544 0 0 0 0 0 0 0 
119 0.180874 0.787472 0.0316544 0 0 0 0 0 0 0 
120 0.75896 0.213289 0.027751 0 0 0 0 0 0 0 
121 0.113028 0.886972 0 0 0 0 0 0 0 0 
122 0.206611 0.762214 0.0311748 0 0 0 0 0 0 0 
123 0.296774 0.703226 0 0 0 0 0 0 0 0 
124 0.304764 0.695236 0 0 0 0 0 0 0 0 
125 0.296774 0.703226 0 0 0 0 0 0 0 0 
126 0.298907 0.701093 0 0 0 0 0 0 0 0 
127 0.410568 0.576998 0.0124338 0 0 0 0 0 0 0 
128 0.408283 0.579283 0.0124338 0 0 0 0 0 0 0 
129 0.296774 0.703226 0 0 0 0 0 0 0 0 
130 0.180874 0.787472 0.0316544 0 0 0 0 0 0 0 
131 0.352741 0.647259 0 0 0 0 0 0 0 0 
132 0.280948 0.639487 0.0761025 0.00346242 0 0 0 0 0 0 
133 0.180874 0.787472 0.0316544 0 0 0 0 0 0 0 
134 0.180874 0.772156 0.0469698 0 0 0 0 0 0 0 
135 0.738364 0.21683 0.0448069 0 0 0 0 0 0 0 
136 0.284937 0.636683 0.072519 0.00586084 0 0 0 0 0 0 
137 0.347396 0.652604 0 0 0 0 0 0 0 0 
138 0.181996 0.785911 0.0320927 0 0 0 0 0 0 0 
139 0.163395 0.804489 0.0321155 0 0 0 0 0 0 0 
140 0.296774 0.703226 0 0 0 0 0 0 0 0 
141 0.753667 0.21691 0.0294227 0 0 0 0 0 0 0 
142 0.396498 0.590877 0.0126251 0 0 0 0 0 0 0 
143 0.474509 0.500018 0.0203461 0.00512673 0 0 0 0 0 0 
144 0.467427 0.507481 0.0200416 0.00505021 0 0 0 0 0 0 
145 0.396498 0.590877 0.0126251 0 0 0 0 0 0 0 
146 0.39691 0.589689 0.0134008 0 0 0 0 0 0 0 
147 0.309499 0.690501 0 0 0 0 0 0 0 0 
148 0.202306 0.767436 0.030258 0 0 0 0 0 0 0 
149 0.384662 0.60309 0.0122482 0 0 0 0 0 0 0 
150 0.399576 0.588175 0.0122482 0 0 0 0 0 0 0 
151 0.475258 0.484196 0.0354197 0.00512672 0 0 0 0 0 0 
152 0.738472 0.232105 0.0294227 0 0 0 0 0 0 0 
153 0.285732 0.650067 0.0607389 0.00346242 0 0 0 0 0 0 
154 0.280948 0.639506 0.0760835 0.00346242 0 0 0 0 0 0 
155 0.482381 0.479022 0.0335472 0.00505023 0 0 0 0 0 0 
156 0.481809 0.492327 0.0206582 0.0052056 0 0 0 0 0 0 
157 0.30906 0.629571 0.0580592 0.00330967 0 0 0 0 0 0 
158 0.180885 0.787461 0.0316544 0 0 0 0 0 0 0 
159 0.280999 0.6548 0.0607389 0.00346242 0 0 0 0 0 0 
160 0.481809 0.492327 0.0206582 0.0052056 0 0 0 0 0 0 
161 0.481809 0.492327 0.0206582 0.0052056 0 0 0 0 0 0 
162 0.280948 0.65485 0.0607389 0.00346242 0 0 0 0 0 0 
163 0.411833 0.575542 0.0126251 0 0 0 0 0 0 0 
164 0.738364 0.232214 0.0294227 0 0 0 0 0 0 0 
165 0.106716 0.893284 0 0 0 0 0 0 0 0 
166 0.41004 0.577335 0.0126251 0 0 0 0 0 0 0 
167 0.411863 0.575512 0.0126251 0 0 0 0 0 0 0 
168 0.49686 0.477276 0.0206582 0.0052056 0 0 0 0 0 0 
169 0.753641 0.216936 0.0294227 0 0 0 0 0 0 0 
170 0.296774 0.703226 0 0 0 0 0 0 0 0 
171 0.29631 0.639488 0.0607389 0.00346242 0 0 0 0 0 0 
172 0.478389 0.521611 0 0 0 0 0 0 0 0 
173 0.181648 0.787177 0.0311748 0 0 0 0 0 0 0 
174 0.19625 0.772095 0.0316544 0 0 0 0 0 0 0 
175 0.280949 0.65485 0.0607389 0.00346242 0 0 0 0 0 0 
176 0.296774 0.703226 0 0 0 0 0 0 0 0 
177 0.264675 0.674845 0.0572178 0.0032617 0 0 0 0 0 0 
178 0.396498 0.590877 0.0126251 0 0 0 0 0 0 0 
179 0.180874 0.787472 0.0316544 0 0 0 0 0 0 0 
180 0.180874 0.775986 0.0431403 0 0 0 0 0 0 0 
181 0.180874 0.787472 0.0316544 0 0 0 0 0 0 0 
182 0.296774 0.703226 0 0 0 0 0 0 0 0 
183 0.180874 0.787472 0.0316544 0 0 0 0 0 0 0 
184 0.396498 0.590877 0.0126251 0 0 0 0 0 0 0 
185 0.292277 0.707723 0 0 0 0 0 0 0 0 
186 0.180874 0.787472 0.0316544 0 0 0 0 0 0 0 
187 0.396498 0.575941 0.027561 0 0 0 0 0 0 0 
188 0.396498 0.575941 0.027561 0 0 0 0 0 0 0 
